{
    "numInputs": 6,
    "numOutputs": 5,
    "neuronsPerLayer": 10,
    "numLayers": 2,
    "hiddenlayers": [
        {
            "neurons": [
                {
                    "numInputs": 6,
                    "weights": [
                        1.4522432420581814,
                        0.5454161945261731,
                        -1.4011641817604612,
                        0.009879889206546645,
                        -1.570265884458009,
                        -0.48217890820961157,
                        -0.37437835068234865
                    ],
                    "error": -7.225007738317786e-9,
                    "result": 0.000008157817490494586
                },
                {
                    "numInputs": 6,
                    "weights": [
                        1.195283636135357,
                        -0.042922088904327194,
                        -3.866952613256999,
                        0.14633974540138878,
                        1.0391406936112426,
                        -0.028360560427032715,
                        -0.36325740753346375
                    ],
                    "error": -4.370300568715241e-8,
                    "result": 0.00009870922874758647
                },
                {
                    "numInputs": 6,
                    "weights": [
                        1.5162082120887712,
                        0.0002013117812779393,
                        -0.17469342225747542,
                        -0.18446732116395834,
                        -1.9292090450470174,
                        -0.22599228167210256,
                        0.39622269740860244
                    ],
                    "error": -2.7600969164376696e-8,
                    "result": 0.000028131397712456656
                },
                {
                    "numInputs": 6,
                    "weights": [
                        0.1251546483712493,
                        1.823042181841797,
                        -1.6170138095810052,
                        -1.4255319966526474,
                        0.8194172109207789,
                        -0.8370952037926116,
                        -0.2529099911792268
                    ],
                    "error": 1.9155800488645672e-12,
                    "result": 0.9999999962341806
                },
                {
                    "numInputs": 6,
                    "weights": [
                        2.1106490425936606,
                        0.1656829536139915,
                        -1.2941339423755238,
                        -0.39134191157876486,
                        -0.18028819913940658,
                        -0.26358984174960826,
                        -0.4756240874469657
                    ],
                    "error": 1.1946005130316899e-8,
                    "result": 0.9999553121981696
                },
                {
                    "numInputs": 6,
                    "weights": [
                        -0.03349599634667846,
                        0.7495189810756824,
                        -2.878009297036036,
                        1.2506721627428952,
                        2.5234420515621614,
                        -0.5651882824825788,
                        0.6962550491474493
                    ],
                    "error": 1.0672859140973656e-10,
                    "result": 0.9999998074624976
                },
                {
                    "numInputs": 6,
                    "weights": [
                        2.297173418266176,
                        -0.04919718530861376,
                        -0.9040200655575296,
                        -0.3382617634073882,
                        -0.4793863611877405,
                        -0.4076438508758655,
                        -0.3841621896707445
                    ],
                    "error": -6.30993264777511e-8,
                    "result": 0.999724653846554
                },
                {
                    "numInputs": 6,
                    "weights": [
                        0.5485413538531723,
                        0.13129612903291624,
                        2.730326727835853,
                        0.029451517817578692,
                        -2.8886125035637886,
                        0.029467104605928968,
                        -0.403441536661754
                    ],
                    "error": -0.00000663710956872658,
                    "result": 0.00452999383440124
                },
                {
                    "numInputs": 6,
                    "weights": [
                        -1.3952538044661003,
                        0.3865402051921006,
                        1.3428796126199432,
                        -0.54741708662755,
                        -0.701029202058055,
                        -0.2558009829978976,
                        0.42020252284518067
                    ],
                    "error": 3.431173962592273e-7,
                    "result": 0.000517132843718582
                },
                {
                    "numInputs": 6,
                    "weights": [
                        1.1178026546572333,
                        -0.10976679469911743,
                        0.6134922458745768,
                        -0.39243788079465597,
                        -1.8647311003779137,
                        0.35650941219154775,
                        0.1729532648080326
                    ],
                    "error": -0.000001248124413117199,
                    "result": 0.001722956539380222
                }
            ],
            "numInputs": 6
        },
        {
            "neurons": [
                {
                    "numInputs": 10,
                    "weights": [
                        2.381436476184575,
                        2.473805253327384,
                        2.204128508855095,
                        2.57594259076616,
                        2.6015640615285833,
                        1.8504855545954062,
                        2.3111493794047573,
                        1.7938278966368413,
                        1.9572028114245474,
                        2.1799533867076777,
                        -7.0017288172637935
                    ],
                    "error": 0.00021933725481150626,
                    "result": 0.9129246512344901
                },
                {
                    "numInputs": 10,
                    "weights": [
                        1.3226501869123315,
                        1.1699050382795444,
                        1.1469171500846849,
                        0.9167761904723575,
                        0.6890226304135743,
                        0.9000355100329732,
                        0.6915964602563253,
                        0.7377867486398123,
                        0.6794653557776315,
                        1.0275801282458257,
                        1.9125630470675776
                    ],
                    "error": 0.000010568111975946157,
                    "result": 0.994032222221134
                },
                {
                    "numInputs": 10,
                    "weights": [
                        -2.373429539456668,
                        -1.8753727514595115,
                        -1.9487879861444632,
                        -2.2314720643526686,
                        -1.7426174416504863,
                        -2.141686506645882,
                        -2.0855889088306996,
                        -2.2403846279094504,
                        -1.6138952291402706,
                        -1.9861560178287623,
                        7.85474241490504
                    ],
                    "error": 0.0006163839836044349,
                    "result": 0.4108058974796161
                },
                {
                    "numInputs": 10,
                    "weights": [
                        -0.5189990253704646,
                        -0.3090697521394494,
                        -0.1994751921439443,
                        -0.6280335585172475,
                        -0.6441986566926287,
                        -1.0381358420993325,
                        -0.7168665934871233,
                        -0.19050808544772616,
                        -0.7933182841218368,
                        -0.8616646480798075,
                        -1.162150262198062
                    ],
                    "error": -0.00000236315302860723,
                    "result": 0.014891565353315624
                },
                {
                    "numInputs": 10,
                    "weights": [
                        0.019934035698752062,
                        -0.03998380307959356,
                        0.155679043243532,
                        -0.5027631443451849,
                        -0.25508177853107045,
                        -0.5698951379388674,
                        -0.19455998451366313,
                        0.2267667368062249,
                        -0.5055455275803596,
                        0.018793928298035358,
                        0.5992698985657331
                    ],
                    "error": -0.0023759380548651144,
                    "result": 0.2845167074285467
                },
                {
                    "numInputs": 10,
                    "weights": [
                        0.15338566984716479,
                        0.25318600602179975,
                        0.011013093792954051,
                        -0.1745187687528008,
                        -0.46125956632466225,
                        -0.17081575871712323,
                        -0.11756732438960531,
                        0.058663030543527374,
                        0.2101740943427513,
                        -0.019839987934475306,
                        -0.4106507722124905
                    ],
                    "error": -0.00013293417762877407,
                    "result": 0.20843374353249697
                },
                {
                    "numInputs": 10,
                    "weights": [
                        1.655935520962014,
                        1.1425136392508515,
                        1.5469835274425487,
                        1.1876860342026108,
                        1.835201891329275,
                        1.904024174859872,
                        1.5801371451971336,
                        1.284244059309418,
                        1.2417901646849203,
                        1.4713281185404683,
                        -0.3220867754906138
                    ],
                    "error": 0.000003504802788068688,
                    "result": 0.9979617220872699
                },
                {
                    "numInputs": 10,
                    "weights": [
                        -1.3134735840027918,
                        -1.0822934639761026,
                        -1.0867864066855815,
                        -0.9965454988302881,
                        -1.033533553465244,
                        -0.877389712364517,
                        -0.6832193225743916,
                        -0.6061629111534473,
                        -0.4915653575333506,
                        -0.5029499587724681,
                        6.092950245541387
                    ],
                    "error": -0.00007971722226254219,
                    "result": 0.9240353227047959
                },
                {
                    "numInputs": 10,
                    "weights": [
                        3.9003432318896736,
                        4.36050562099145,
                        3.6991575341999816,
                        4.0440595960572185,
                        4.115193769135979,
                        4.088157223338019,
                        4.032117383354485,
                        4.183396755285576,
                        4.427446595200275,
                        3.9783191387870476,
                        -6.734836905008581
                    ],
                    "error": -1.0721490094287625e-7,
                    "result": 0.9999303568977093
                },
                {
                    "numInputs": 10,
                    "weights": [
                        0.2353692464359073,
                        -0.5716058351270422,
                        -0.33290603083407,
                        -0.6375546588267696,
                        -0.5680387769996688,
                        -0.33150475520488976,
                        -0.2635922089855789,
                        -0.1526709287598606,
                        -0.3631634086076132,
                        -0.42845293043029875,
                        -0.8620212634160505
                    ],
                    "error": -0.0000110449614744405,
                    "result": 0.06511338563078976
                }
            ],
            "numInputs": 10
        }
    ],
    "outputLayer": {
        "neurons": [
            {
                "numInputs": 10,
                "weights": [
                    4.9651592561695175,
                    0.15707908583987495,
                    -0.5889535051987695,
                    0.20129997383964163,
                    1.6949071388228505,
                    0.9408880861242416,
                    2.0383462073066787,
                    -13.475759090068575,
                    0.26098486995449793,
                    -0.3239465801983081,
                    -2.0906487254023
                ],
                "error": -6.26629000286338e-7,
                "result": 0.0007918796669132994
            },
            {
                "numInputs": 10,
                "weights": [
                    -4.881813264413605,
                    2.4877190592682195,
                    3.063860321273399,
                    1.397271384970421,
                    -1.2722561587379284,
                    1.4351198173379431,
                    -1.3856326878525256,
                    1.4110070586276044,
                    -7.555599251751373,
                    1.8134665490848083,
                    -1.7383184147356145
                ],
                "error": -1.973831748738987e-9,
                "result": 0.000044430293574023835
            },
            {
                "numInputs": 10,
                "weights": [
                    -9.28916801590193,
                    -1.6833365058765233,
                    -0.2741964619161242,
                    0.3489639601780246,
                    0.22114894862346868,
                    0.8864567846189965,
                    -0.4046332466038572,
                    1.8399648915353204,
                    9.260499971098817,
                    0.2620656863967287,
                    -4.549034166111125
                ],
                "error": -0.00032451908688498814,
                "result": 0.018179942832186262
            },
            {
                "numInputs": 10,
                "weights": [
                    5.771963529238676,
                    -3.0882815029050663,
                    -5.0065711054152064,
                    0.45799831102775773,
                    15.868193300068814,
                    -0.27205574020891704,
                    -3.4082761479741626,
                    7.292834649512408,
                    -3.1003688907107967,
                    0.48483748404367094,
                    -8.776723632257937
                ],
                "error": -0.0003860401103642518,
                "result": 0.019837755418080194
            },
            {
                "numInputs": 10,
                "weights": [
                    5.894749942453974,
                    0.1286404881418546,
                    1.5646672733873306,
                    0.38510155125484147,
                    -16.32505263754722,
                    -1.8569510367354747,
                    0.8270483920325403,
                    6.766826824933658,
                    0.8021555613412948,
                    0.27019295681056354,
                    -5.051070739210711
                ],
                "error": 0.00033521161172573596,
                "result": 0.9815272832037878
            }
        ],
        "numInputs": 10
    }
}